<?xml version="1.0"?>
<opencv_storage>
<stage4>
  <maxWeakCount>9</maxWeakCount>
  <stageThreshold>-1.2911418676376343e+00</stageThreshold>
  <weakClassifiers>
    <_>
      <internalNodes>
        0 -1 31853 2.6019102334976196e-01</internalNodes>
      <leafValues>
        -6.1967211961746216e-01 5.8596491813659668e-01</leafValues></_>
    <_>
      <internalNodes>
        0 -1 148761 7.2482842952013016e-03</internalNodes>
      <leafValues>
        -4.4277143478393555e-01 3.8841021060943604e-01</leafValues></_>
    <_>
      <internalNodes>
        0 -1 31249 -7.5526032596826553e-03</internalNodes>
      <leafValues>
        3.0745837092399597e-01 -4.9081224203109741e-01</leafValues></_>
    <_>
      <internalNodes>
        0 -1 60603 -4.5312452130019665e-03</internalNodes>
      <leafValues>
        -7.7239739894866943e-01 2.0946745574474335e-01</leafValues></_>
    <_>
      <internalNodes>
        0 -1 161720 5.0842575728893280e-03</internalNodes>
      <leafValues>
        -2.4828401207923889e-01 5.2958661317825317e-01</leafValues></_>
    <_>
      <internalNodes>
        0 -1 445 5.1299005746841431e-02</internalNodes>
      <leafValues>
        -4.4981533288955688e-01 2.7614352107048035e-01</leafValues></_>
    <_>
      <internalNodes>
        0 -1 18741 -1.2015176936984062e-02</internalNodes>
      <leafValues>
        4.3194293975830078e-01 -3.0254328250885010e-01</leafValues></_>
    <_>
      <internalNodes>
        0 -1 33190 1.2824776582419872e-02</internalNodes>
      <leafValues>
        -2.2156207263469696e-01 6.8747353553771973e-01</leafValues></_>
    <_>
      <internalNodes>
        0 -1 55755 -4.8164930194616318e-03</internalNodes>
      <leafValues>
        6.2690776586532593e-01 -1.7654907703399658e-01</leafValues></_></weakClassifiers></stage4>
</opencv_storage>
