<?xml version="1.0"?>
<opencv_storage>
<stage10>
  <maxWeakCount>5</maxWeakCount>
  <stageThreshold>-6.0284161567687988e-01</stageThreshold>
  <weakClassifiers>
    <_>
      <internalNodes>
        0 -1 64997 3.0140135437250137e-02</internalNodes>
      <leafValues>
        -5.0909090042114258e-01 6.0000002384185791e-01</leafValues></_>
    <_>
      <internalNodes>
        0 -1 2213 1.7763525247573853e-03</internalNodes>
      <leafValues>
        -4.9422016739845276e-01 5.6426519155502319e-01</leafValues></_>
    <_>
      <internalNodes>
        0 -1 70291 -8.8691711425781250e-05</internalNodes>
      <leafValues>
        4.9778288602828979e-01 -6.4207541942596436e-01</leafValues></_>
    <_>
      <internalNodes>
        0 -1 153442 1.2548356316983700e-02</internalNodes>
      <leafValues>
        -3.7613153457641602e-01 7.8931897878646851e-01</leafValues></_>
    <_>
      <internalNodes>
        0 -1 142671 1.7395608592778444e-03</internalNodes>
      <leafValues>
        3.7585398554801941e-01 -7.7966725826263428e-01</leafValues></_></weakClassifiers></stage10>
</opencv_storage>
