<?xml version="1.0"?>
<opencv_storage>
<stage12>
  <maxWeakCount>5</maxWeakCount>
  <stageThreshold>-7.5223356485366821e-01</stageThreshold>
  <weakClassifiers>
    <_>
      <internalNodes>
        0 -1 115541 1.4113765209913254e-03</internalNodes>
      <leafValues>
        -5.6435644626617432e-01 5.0000000000000000e-01</leafValues></_>
    <_>
      <internalNodes>
        0 -1 30365 1.1166631011292338e-03</internalNodes>
      <leafValues>
        -5.7128387689590454e-01 4.1605436801910400e-01</leafValues></_>
    <_>
      <internalNodes>
        0 -1 146898 -3.1756728421896696e-03</internalNodes>
      <leafValues>
        -8.5598397254943848e-01 2.7098682522773743e-01</leafValues></_>
    <_>
      <internalNodes>
        0 -1 42322 1.5651111607439816e-04</internalNodes>
      <leafValues>
        -3.9596658945083618e-01 6.5575683116912842e-01</leafValues></_>
    <_>
      <internalNodes>
        0 -1 135947 -1.1482717469334602e-02</internalNodes>
      <leafValues>
        6.4801907539367676e-01 -4.5378929376602173e-01</leafValues></_></weakClassifiers></stage12>
</opencv_storage>
