<?xml version="1.0"?>
<opencv_storage>
<stage13>
  <maxWeakCount>5</maxWeakCount>
  <stageThreshold>-6.1692857742309570e-01</stageThreshold>
  <weakClassifiers>
    <_>
      <internalNodes>
        0 -1 130800 5.4709538817405701e-02</internalNodes>
      <leafValues>
        -4.3548387289047241e-01 9.0476191043853760e-01</leafValues></_>
    <_>
      <internalNodes>
        0 -1 128514 3.7632911698892713e-04</internalNodes>
      <leafValues>
        2.7054712176322937e-01 -8.8454860448837280e-01</leafValues></_>
    <_>
      <internalNodes>
        0 -1 76919 -2.0909598097205162e-03</internalNodes>
      <leafValues>
        7.4740129709243774e-01 -3.7930566072463989e-01</leafValues></_>
    <_>
      <internalNodes>
        0 -1 159800 -8.3740921691060066e-03</internalNodes>
      <leafValues>
        6.7973852157592773e-01 -3.7660571932792664e-01</leafValues></_>
    <_>
      <internalNodes>
        0 -1 84172 2.6238211430609226e-03</internalNodes>
      <leafValues>
        3.3230829238891602e-01 -9.6870046854019165e-01</leafValues></_></weakClassifiers></stage13>
</opencv_storage>
